{
  "type": "NeuralNetwork",
  "sizes": [
    3,
    6,
    6,
    4
  ],
  "layers": [
    {
      "weights": [],
      "biases": []
    },
    {
      "weights": [
        [
          -14.679621696472168,
          25.485248565673828,
          -23.32915687561035
        ],
        [
          7.862908840179443,
          6.11286735534668,
          -12.976699829101562
        ],
        [
          73.42733764648438,
          48.79893112182617,
          -68.86627960205078
        ],
        [
          -20.13290023803711,
          -6.662097930908203,
          7.382961750030518
        ],
        [
          -6.460941314697266,
          10.263043403625488,
          -19.453760147094727
        ],
        [
          -12.896598815917969,
          11.890748023986816,
          -8.196573257446289
        ]
      ],
      "biases": [
        2.2864155769348145,
        6.290955543518066,
        -16.750621795654297,
        6.215456485748291,
        13.089674949645996,
        5.930917739868164
      ]
    },
    {
      "weights": [
        [
          4.977821350097656,
          6.650893688201904,
          1.1124699115753174,
          4.300581932067871,
          -16.8836612701416,
          10.151947021484375
        ],
        [
          1.3192529678344727,
          3.095743179321289,
          -8.481486320495605,
          7.770735263824463,
          2.2400598526000977,
          -5.900546073913574
        ],
        [
          -2.4428048133850098,
          -2.62321138381958,
          -0.6705712080001831,
          -4.173233509063721,
          -12.302061080932617,
          -3.9989211559295654
        ],
        [
          -9.755805969238281,
          -3.300644874572754,
          1.2172423601150513,
          -2.0070245265960693,
          -2.4719464778900146,
          4.341659069061279
        ],
        [
          -27.41680908203125,
          8.060283660888672,
          15.860311508178711,
          9.455513000488281,
          0.3927023112773895,
          -5.8638081550598145
        ],
        [
          -2.2436110973358154,
          -15.467251777648926,
          2.213470697402954,
          -11.70926284790039,
          -6.106576919555664,
          2.1804354190826416
        ]
      ],
      "biases": [
        -10.792985916137695,
        -8.969228744506836,
        -0.6281836628913879,
        -0.7118613123893738,
        -10.183414459228516,
        11.10041618347168
      ]
    },
    {
      "weights": [
        [
          -14.667309761047363,
          -1.3794145584106445,
          -2.5113046169281006,
          -9.6085844039917,
          3.208150625228882,
          -15.085013389587402
        ],
        [
          0.2551089823246002,
          0.137385755777359,
          3.012510061264038,
          -0.29441729187965393,
          0.11489097774028778,
          0.1298844963312149
        ],
        [
          0.05443261191248894,
          -0.32183054089546204,
          -1.9034092426300049,
          0.08081717789173126,
          -0.15256115794181824,
          0.10074929893016815
        ],
        [
          -0.3328605592250824,
          0.16645902395248413,
          -1.1877074241638184,
          0.20368321239948273,
          0.013696404173970222,
          -0.23720909655094147
        ]
      ],
      "biases": [
        -2.2446370124816895,
        -0.8298685550689697,
        -0.7787213921546936,
        -0.4865848422050476
      ]
    }
  ],
  "inputLookup": {
    "lapsLeft": 0,
    "tyreUsed": 1,
    "tyreLifeLeft": 2
  },
  "inputLookupLength": 3,
  "outputLookup": {
    "pitstop": 0,
    "nextTyreSoft": 1,
    "nextTyreMedium": 2,
    "nextTyreHard": 3
  },
  "outputLookupLength": 4,
  "options": {
    "inputSize": 0,
    "outputSize": 0,
    "binaryThresh": 0.5,
    "iterations": 10000,
    "log": true,
    "logPeriod": 100,
    "errorThresh": 0.005,
    "learningRate": 0.1,
    "hiddenLayers": [
      6,
      6
    ]
  },
  "trainOpts": {
    "activation": "sigmoid",
    "iterations": 10000,
    "errorThresh": 0.005,
    "log": true,
    "logPeriod": 100,
    "leakyReluAlpha": 0.01,
    "learningRate": 0.1,
    "momentum": 0.1,
    "callbackPeriod": 10,
    "timeout": "Infinity",
    "beta1": 0.9,
    "beta2": 0.999,
    "epsilon": 1e-8
  }
}